Language model created by QuickLM on Wed Aug 17 04:47:36 EDT 2016
Copyright (c) 1996-2010 Carnegie Mellon University and Alexander I. Rudnicky

The model is in standard ARPA format, designed by Doug Paul while he was at MITRE.

The code that was used to produce this language model is available in Open Source.
Please visit http://www.speech.cs.cmu.edu/tools/ for more information

The (fixed) discount mass is 0.5. The backoffs are computed using the ratio method.
This model based on a corpus of 5 sentences and 7 words

\data\
ngram 1=7
ngram 2=12
ngram 3=15

\1-grams:
-0.6990 </s> -0.2041
-0.6990 <s> -0.1461
-1.6990 上一首 -0.2041
-1.6990 下一首 -0.2041
-1.6990 停止 -0.2041
-1.6990 播放 -0.2041
-1.6990 暂停 -0.2041

\2-grams:
-0.6021 </s> </s> -0.3010
-0.6021 <s> <s> -0.1761
-1.3010 <s> 上一首 0.0000
-1.3010 <s> 下一首 0.0000
-1.3010 <s> 停止 0.0000
-1.3010 <s> 播放 0.0000
-1.3010 <s> 暂停 0.0000
-0.3010 上一首 </s> -0.1761
-0.3010 下一首 </s> -0.1761
-0.3010 停止 </s> -0.1761
-0.3010 播放 </s> -0.1761
-0.3010 暂停 </s> -0.1761

\3-grams:
-1.0000 <s> <s> 上一首
-1.0000 <s> <s> 下一首
-1.0000 <s> <s> 停止
-1.0000 <s> <s> 播放
-1.0000 <s> <s> 暂停
-0.3010 <s> 上一首 </s>
-0.3010 <s> 下一首 </s>
-0.3010 <s> 停止 </s>
-0.3010 <s> 播放 </s>
-0.3010 <s> 暂停 </s>
-0.3010 上一首 </s> </s>
-0.3010 下一首 </s> </s>
-0.3010 停止 </s> </s>
-0.3010 播放 </s> </s>
-0.3010 暂停 </s> </s>

\end\
